<?xml version="1.0"?>
<opencv_storage>
<cascade>
  <stageType>BOOST</stageType>
  <featureType>LBP</featureType>
  <height>24</height>
  <width>24</width>
  <stageParams>
    <boostType>GAB</boostType>
    <minHitRate>9.9500000476837158e-01</minHitRate>
    <maxFalseAlarm>1.9999999494757503e-04</maxFalseAlarm>
    <weightTrimRate>9.4999999999999996e-01</weightTrimRate>
    <maxDepth>1</maxDepth>
    <maxWeakCount>100</maxWeakCount></stageParams>
  <featureParams>
    <maxCatCount>256</maxCatCount>
    <featSize>1</featSize></featureParams>
  <stageNum>6</stageNum>
  <stages>
    <!-- stage 0 -->
    <_>
      <maxWeakCount>27</maxWeakCount>
      <stageThreshold>6.2845325469970703e-01</stageThreshold>
      <weakClassifiers>
        <_>
          <internalNodes>
            0 -1 6 -3145792 -513 -136380932 -2561 -264194 -1029 -65825
            -201329665</internalNodes>
          <leafValues>
            -5.9838306903839111e-01 7.3414045572280884e-01</leafValues></_>
        <_>
          <internalNodes>
            0 -1 238 788496383 -1359020033 -16777217 -1359151108
            2147450751 -1 -98444 -16973964</internalNodes>
          <leafValues>
            -5.2957534790039062e-01 6.4002364873886108e-01</leafValues></_>
        <_>
          <internalNodes>
            0 -1 298 1073709055 -1359544321 -1 -285413380 -42107395 -3
            -230028 -285409292</internalNodes>
          <leafValues>
            -5.3607183694839478e-01 6.1046010255813599e-01</leafValues></_>
        <_>
          <internalNodes>
            0 -1 264 517963775 780075007 -8193 -1359151106 2147442559 -3
            -230587 -1460600972</internalNodes>
          <leafValues>
            -4.8696559667587280e-01 5.2708089351654053e-01</leafValues></_>
        <_>
          <internalNodes>
            0 -1 39 -1114114 -99394 -182801414 -44291306 -294913
            2138715976 -43106385 1600336715</internalNodes>
          <leafValues>
            -6.0555946826934814e-01 4.5221385359764099e-01</leafValues></_>
        <_>
          <internalNodes>
            0 -1 181 1593802623 251591671 -53477633 -1436614674
            1979604829 -33025 -16843140 -17760396</internalNodes>
          <leafValues>
            -4.9232932925224304e-01 5.1705533266067505e-01</leafValues></_>
        <_>
          <internalNodes>
            0 -1 376 -102793437 1740636087 -270012672 -286326786
            2147448628 1971322623 -25170844 -185073793</internalNodes>
          <leafValues>
            -5.5828452110290527e-01 4.1212910413742065e-01</leafValues></_>
        <_>
          <internalNodes>
            0 -1 59 1316779638 1534558070 782185274 2147459898
            1615404031 1565796988 179375838 2146970558</internalNodes>
          <leafValues>
            -5.0606709718704224e-01 4.3278676271438599e-01</leafValues></_>
        <_>
          <internalNodes>
            0 -1 325 266042367 800776189 -55337 -1897201668 2134867319
            -545259521 -1281675 -318964400</internalNodes>
          <leafValues>
            -4.9953758716583252e-01 4.6353471279144287e-01</leafValues></_>
        <_>
          <internalNodes>
            0 -1 333 585072503 788430845 719646589 -289474698 -10584715
            -1090535428 2117893748 -320540938</internalNodes>
          <leafValues>
            -4.5207175612449646e-01 4.8628303408622742e-01</leafValues></_>
        <_>
          <internalNodes>
            0 -1 94 1324330367 -1395273748 -294650706 -1426522642
            2130394927 -117964853 -1051289 -151715977</internalNodes>
          <leafValues>
            -4.3540394306182861e-01 5.1140099763870239e-01</leafValues></_>
        <_>
          <internalNodes>
            0 -1 278 861479807 -1375961345 -37757443 -1143054340
            1878948829 -18878537 -6422531 -1359989260</internalNodes>
          <leafValues>
            -4.6900859475135803e-01 4.6701923012733459e-01</leafValues></_>
        <_>
          <internalNodes>
            0 -1 226 -67298032 -570950371 -175251635 2105409359
            -117077600 -631769673 -237387973 1347157375</internalNodes>
          <leafValues>
            -5.5222529172897339e-01 4.2216601967811584e-01</leafValues></_>
        <_>
          <internalNodes>
            0 -1 72 -1888014417 787363754 -302209462 -16978706
            1609525247 1270216653 1958737662 -185073665</internalNodes>
          <leafValues>
            -4.8940429091453552e-01 4.2796957492828369e-01</leafValues></_>
        <_>
          <internalNodes>
            0 -1 232 720700791 788200826 -100761987 -1360069384
            2144750455 -8404993 2136505173 -52667788</internalNodes>
          <leafValues>
            -5.0305426120758057e-01 4.1699016094207764e-01</leafValues></_>
        <_>
          <internalNodes>
            0 -1 157 1509753344 494522484 1399822295 1896323301
            -336728065 1256184803 2120248010 369473898</internalNodes>
          <leafValues>
            -6.0655558109283447e-01 3.5152047872543335e-01</leafValues></_>
        <_>
          <internalNodes>
            0 -1 208 926898687 113202685 2030042367 776666268 -10609668
            -268435715 -37816460 -16992463</internalNodes>
          <leafValues>
            -4.9403223395347595e-01 4.2265278100967407e-01</leafValues></_>
        <_>
          <internalNodes>
            0 -1 73 -69206020 -67764233 901455358 -1144276289
            -1194990916 1673171084 -1319128368 30765306</internalNodes>
          <leafValues>
            -5.6050962209701538e-01 3.6452209949493408e-01</leafValues></_>
        <_>
          <internalNodes>
            0 -1 342 -1077191297 -1360069133 671079775 -1360101380
            2147434359 -1074528265 -841590956 -855835152</internalNodes>
          <leafValues>
            -5.1647955179214478e-01 4.0961775183677673e-01</leafValues></_>
        <_>
          <internalNodes>
            0 -1 79 1994534431 1894789901 1736576798 -47041362
            1543521486 1353975040 -1170180358 2115649342</internalNodes>
          <leafValues>
            -5.2485877275466919e-01 4.0402480959892273e-01</leafValues></_>
        <_>
          <internalNodes>
            0 -1 374 1835994559 738195295 -1113940547 -1364320386
            -1115736811 -155984022 -18875072 -285950089</internalNodes>
          <leafValues>
            -4.3484103679656982e-01 5.1976454257965088e-01</leafValues></_>
        <_>
          <internalNodes>
            0 -1 411 2145066847 1731934079 -1478792586 -2136014997
            -571058928 1391517517 -99454396 -453575321</internalNodes>
          <leafValues>
            -4.7511097788810730e-01 4.5710772275924683e-01</leafValues></_>
        <_>
          <internalNodes>
            0 -1 77 1795084275 -1504479233 -1343066348 -1465469956
            -1392559023 2013232491 -2454974 -85545097</internalNodes>
          <leafValues>
            -4.2123726010322571e-01 5.1115971803665161e-01</leafValues></_>
        <_>
          <internalNodes>
            0 -1 284 225772919 954136383 -1923237827 -1562869964
            2012900725 -72073761 -437067980 -151732656</internalNodes>
          <leafValues>
            -5.0558286905288696e-01 4.2042028903961182e-01</leafValues></_>
        <_>
          <internalNodes>
            0 -1 382 417464319 123715580 -492961945 -304218124 804617021
            -1342248801 -1350614659 -1442854416</internalNodes>
          <leafValues>
            -3.6711603403091431e-01 5.5304962396621704e-01</leafValues></_>
        <_>
          <internalNodes>
            0 -1 176 611796895 669289343 445275903 251320782 2121299807
            -69249475 511101775 -287031312</internalNodes>
          <leafValues>
            -4.6518337726593018e-01 4.4601601362228394e-01</leafValues></_>
        <_>
          <internalNodes>
            0 -1 20 -975248134 -149492026 -199613626 -1023244242
            -817392898 1899258118 -948451154 2002206667</internalNodes>
          <leafValues>
            -5.4570889472961426e-01 4.0104070305824280e-01</leafValues></_></weakClassifiers></_>
    <!-- stage 1 -->
    <_>
      <maxWeakCount>46</maxWeakCount>
      <stageThreshold>4.6485134959220886e-01</stageThreshold>
      <weakClassifiers>
        <_>
          <internalNodes>
            0 -1 5 -36765746 -577 -10617345 -2756643 -135069713
            -135790620 -2228225 -201850897</internalNodes>
          <leafValues>
            -5.6250000000000000e-01 7.1400469541549683e-01</leafValues></_>
        <_>
          <internalNodes>
            0 -1 321 -537919523 532676095 -2119629664 -1912997967
            -1931875400 145276665 -2067167096 162516223</internalNodes>
          <leafValues>
            -4.8998886346817017e-01 5.4595583677291870e-01</leafValues></_>
        <_>
          <internalNodes>
            0 -1 58 -606216194 2106626484 92219822 798689674 1519366638
            978114856 786763146 995076906</internalNodes>
          <leafValues>
            -4.8503574728965759e-01 4.1081413626670837e-01</leafValues></_>
        <_>
          <internalNodes>
            0 -1 13 -155000154 -1174109544 -1252010692 -584856630
            -135213370 -193928832 -262672738 1968528375</internalNodes>
          <leafValues>
            -5.0859844684600830e-01 3.2252609729766846e-01</leafValues></_>
        <_>
          <internalNodes>
            0 -1 330 -43057147 994031485 -1077056033 456204247
            -620997378 -104349730 -1158221937 671238923</internalNodes>
          <leafValues>
            -3.8988512754440308e-01 3.8108819723129272e-01</leafValues></_>
        <_>
          <internalNodes>
            0 -1 96 2119751151 2142262269 -1783472178 990910298
            308041209 1907645567 -1105060840 2071428986</internalNodes>
          <leafValues>
            -4.2441904544830322e-01 3.2887473702430725e-01</leafValues></_>
        <_>
          <internalNodes>
            0 -1 273 1599963127 -1634158087 -152118064 -1348800004
            1927102973 -67386643 -17942700 -16978716</internalNodes>
          <leafValues>
            -4.6640026569366455e-01 3.0826792120933533e-01</leafValues></_>
        <_>
          <internalNodes>
            0 -1 286 -1076776432 2009442284 -740971256 -38823520
            -947327864 950003933 -1867759990 67600079</internalNodes>
          <leafValues>
            -4.5817548036575317e-01 3.1481292843818665e-01</leafValues></_>
        <_>
          <internalNodes>
            0 -1 240 -121831983 975624880 1538798784 -1883161680
            2134011357 1796795860 -1942015096 636452590</internalNodes>
          <leafValues>
            -4.1108998656272888e-01 3.1404954195022583e-01</leafValues></_>
        <_>
          <internalNodes>
            0 -1 57 -963673185 1417424415 -362665218 -1565340046
            1721133886 1629781852 -146842034 -211559634</internalNodes>
          <leafValues>
            -3.3381575345993042e-01 3.7641844153404236e-01</leafValues></_>
        <_>
          <internalNodes>
            0 -1 205 512219123 -2037849129 -831001233 -822312964
            99508830 -555176497 -16893100 -86198284</internalNodes>
          <leafValues>
            -4.5157301425933838e-01 3.0006435513496399e-01</leafValues></_>
        <_>
          <internalNodes>
            0 -1 67 -291330105 -257382418 -841505839 -1182185820
            1645171193 -154296837 1182943615 1162175818</internalNodes>
          <leafValues>
            -3.6996835470199585e-01 3.4415817260742188e-01</leafValues></_>
        <_>
          <internalNodes>
            0 -1 194 -33705200 1976359488 -898387719 1461050863
            -1815507328 2129136436 728697130 1266387771</internalNodes>
          <leafValues>
            -4.2774060368537903e-01 3.1129264831542969e-01</leafValues></_>
        <_>
          <internalNodes>
            0 -1 182 -1921024001 1584035199 -1811090945 -86344609
            -212314899 -137440696 -625470370 -97329356</internalNodes>
          <leafValues>
            -3.8227793574333191e-01 3.3092984557151794e-01</leafValues></_>
        <_>
          <internalNodes>
            0 -1 146 1081539829 722109520 -648116152 791407202
            1309952254 1377206324 1827745602 1626676023</internalNodes>
          <leafValues>
            -4.1477563977241516e-01 2.9642507433891296e-01</leafValues></_>
        <_>
          <internalNodes>
            0 -1 393 -1417940549 599306120 -480144272 -1905397464
            -1177586251 267119279 82821488 -923825968</internalNodes>
          <leafValues>
            -4.0553772449493408e-01 3.1514176726341248e-01</leafValues></_>
        <_>
          <internalNodes>
            0 -1 68 1659543754 -675142460 -526031441 93295002 1120788986
            -554299225 -658878245 1961444475</internalNodes>
          <leafValues>
            -4.2786869406700134e-01 2.7954918146133423e-01</leafValues></_>
        <_>
          <internalNodes>
            0 -1 339 -69468745 663519666 349106466 -287384631 1566407428
            -1349283909 1991998340 -453771850</internalNodes>
          <leafValues>
            -4.2269349098205566e-01 2.6759973168373108e-01</leafValues></_>
        <_>
          <internalNodes>
            0 -1 213 203620284 995155448 285484844 1037645840 686004476
            945582236 -928051986 232864127</internalNodes>
          <leafValues>
            -4.0171542763710022e-01 2.9465079307556152e-01</leafValues></_>
        <_>
          <internalNodes>
            0 -1 379 1059449559 -1148975086 -1073775147 -410014012
            1202414355 -289720164 -1237322015 -588654860</internalNodes>
          <leafValues>
            -3.5807567834854126e-01 3.3057165145874023e-01</leafValues></_>
        <_>
          <internalNodes>
            0 -1 41 1713284968 1051866646 -150202684 1383660578
            1399552862 618452065 -864180214 1953838094</internalNodes>
          <leafValues>
            -4.6633180975914001e-01 2.4599359929561615e-01</leafValues></_>
        <_>
          <internalNodes>
            0 -1 268 1426029555 784881662 1371370993 725545400 189615781
            -1951726133 1791654004 -85134348</internalNodes>
          <leafValues>
            -4.4285136461257935e-01 2.6320791244506836e-01</leafValues></_>
        <_>
          <internalNodes>
            0 -1 200 1026055827 -5713694 1503446736 899207280 1315832494
            443174830 1793994506 213344115</internalNodes>
          <leafValues>
            -4.0045186877250671e-01 3.1118997931480408e-01</leafValues></_>
        <_>
          <internalNodes>
            0 -1 242 -726378499 1069432628 1969418461 258499652
            1358462364 939626187 -1097827336 -1363928204</internalNodes>
          <leafValues>
            -6.0514146089553833e-01 1.9643129408359528e-01</leafValues></_>
        <_>
          <internalNodes>
            0 -1 390 1837863192 161122165 -8566576 -1989295396 297646836
            33139054 278664352 76903394</internalNodes>
          <leafValues>
            -5.4490762948989868e-01 2.1388372778892517e-01</leafValues></_>
        <_>
          <internalNodes>
            0 -1 126 1240280977 519199039 -1765885701 -1658836013
            1434089520 1557806199 -50684230 1853847850</internalNodes>
          <leafValues>
            -3.3114829659461975e-01 3.3552321791648865e-01</leafValues></_>
        <_>
          <internalNodes>
            0 -1 308 2071943936 -1320134635 1760992173 214112561
            -470116460 348539232 615130266 850127387</internalNodes>
          <leafValues>
            -4.3635636568069458e-01 2.6375034451484680e-01</leafValues></_>
        <_>
          <internalNodes>
            0 -1 38 -391502875 1218594886 -1353547526 1601892802
            1758619070 1150576846 1705069812 1150493379</internalNodes>
          <leafValues>
            -4.9685364961624146e-01 2.3105700314044952e-01</leafValues></_>
        <_>
          <internalNodes>
            0 -1 344 1041159679 147114517 -737553691 -872620580
            1441799828 -2101746471 -138513324 -1394838316</internalNodes>
          <leafValues>
            -4.6873083710670471e-01 2.3259119689464569e-01</leafValues></_>
        <_>
          <internalNodes>
            0 -1 210 -748767756 994575004 -2049374084 1066646832
            453048708 1230532748 -2068971846 757689955</internalNodes>
          <leafValues>
            -4.0666049718856812e-01 2.8099074959754944e-01</leafValues></_>
        <_>
          <internalNodes>
            0 -1 156 863084544 -1078793759 -89735201 -1660778225
            -664596339 763528174 2127530862 369311503</internalNodes>
          <leafValues>
            -4.8754087090492249e-01 2.4114112555980682e-01</leafValues></_>
        <_>
          <internalNodes>
            0 -1 173 239289483 -1499412995 -1651103629 -58789384
            1796232830 -335618473 1873705810 -155418736</internalNodes>
          <leafValues>
            -4.5266413688659668e-01 2.6855707168579102e-01</leafValues></_>
        <_>
          <internalNodes>
            0 -1 372 166327329 1365495070 -660520014 1146407045
            976077828 5517253 1276500072 3545859</internalNodes>
          <leafValues>
            -5.6068199872970581e-01 2.1744513511657715e-01</leafValues></_>
        <_>
          <internalNodes>
            0 -1 44 -666724394 1398970190 -1648064566 -3617398
            1249581287 648026398 -460647058 1978378031</internalNodes>
          <leafValues>
            -4.3995276093482971e-01 2.5396564602851868e-01</leafValues></_>
        <_>
          <internalNodes>
            0 -1 359 2001727167 665732511 -1182754473 214858576
            466369040 -549381730 2120933632 -1067649596</internalNodes>
          <leafValues>
            -4.6476653218269348e-01 2.6067087054252625e-01</leafValues></_>
        <_>
          <internalNodes>
            0 -1 259 -1321103211 287371656 -1321250196 -371421316
            -555071540 1003797999 -398566180 347036787</internalNodes>
          <leafValues>
            -3.8171896338462830e-01 3.1216943264007568e-01</leafValues></_>
        <_>
          <internalNodes>
            0 -1 108 1621273474 -706441305 -169598540 1902894363
            -1132124429 -1792638150 -2058531651 93181197</internalNodes>
          <leafValues>
            -3.9900326728820801e-01 3.1211122870445251e-01</leafValues></_>
        <_>
          <internalNodes>
            0 -1 228 1153215713 1037226452 -1394805503 -1213727868
            -1037170435 -1729711873 -1699828168 687807318</internalNodes>
          <leafValues>
            -3.4648653864860535e-01 3.3190894126892090e-01</leafValues></_>
        <_>
          <internalNodes>
            0 -1 74 -1507990685 -959909240 200987719 -121048320
            1033337786 698540195 1444242385 -413804652</internalNodes>
          <leafValues>
            -3.6242997646331787e-01 3.1273829936981201e-01</leafValues></_>
        <_>
          <internalNodes>
            0 -1 312 -646578895 1350144119 1342556083 -1592557153
            -874407296 1101729713 1001302794 1751507759</internalNodes>
          <leafValues>
            -3.6368015408515930e-01 3.1447669863700867e-01</leafValues></_>
        <_>
          <internalNodes>
            0 -1 241 1592741627 839908181 67262705 781081092 -1011732101
            -1886811413 1183841136 -151717904</internalNodes>
          <leafValues>
            -4.3973842263221741e-01 2.6393085718154907e-01</leafValues></_>
        <_>
          <internalNodes>
            0 -1 124 1214418190 1946950494 -334834738 -1084743702
            -1067316072 1190952010 -570519030 2094103538</internalNodes>
          <leafValues>
            -4.4679790735244751e-01 2.7089378237724304e-01</leafValues></_>
        <_>
          <internalNodes>
            0 -1 54 1057541855 -737088 872450251 -451948406 -1615618947
            -143342546 -858914087 1159170838</internalNodes>
          <leafValues>
            -3.2835674285888672e-01 3.4858444333076477e-01</leafValues></_>
        <_>
          <internalNodes>
            0 -1 292 -573311589 475337612 -48653624 -1916670482
            1561571136 374372760 2124935626 879230711</internalNodes>
          <leafValues>
            -3.3961609005928040e-01 3.3951255679130554e-01</leafValues></_>
        <_>
          <internalNodes>
            0 -1 100 1893705278 -1529194541 9457244 -31787538
            -1481111226 990591678 -233141412 1970654096</internalNodes>
          <leafValues>
            -4.9641844630241394e-01 2.4898473918437958e-01</leafValues></_>
        <_>
          <internalNodes>
            0 -1 252 2088699957 -123323347 -913011553 -1079488196
            -412154715 -1142945510 880392168 838885194</internalNodes>
          <leafValues>
            -3.8834124803543091e-01 3.0089846253395081e-01</leafValues></_></weakClassifiers></_>
    <!-- stage 2 -->
    <_>
      <maxWeakCount>73</maxWeakCount>
      <stageThreshold>3.5312613844871521e-01</stageThreshold>
      <weakClassifiers>
        <_>
          <internalNodes>
            0 -1 4 -33575250 -537395201 -67174401 -4194305 -1025 -769
            -4097 -1</internalNodes>
          <leafValues>
            -4.2163613438606262e-01 4.7489824891090393e-01</leafValues></_>
        <_>
          <internalNodes>
            0 -1 185 -672181505 -3124645 2069486079 2142911199 -83885860
            -105231081 -6116358 -72717638</internalNodes>
          <leafValues>
            -2.6980397105216980e-01 4.4168812036514282e-01</leafValues></_>
        <_>
          <internalNodes>
            0 -1 302 -1315188 -608184385 -203457541 -842035985
            -660881224 -273942373 -370147605 83874559</internalNodes>
          <leafValues>
            -3.5250359773635864e-01 2.8910470008850098e-01</leafValues></_>
        <_>
          <internalNodes>
            0 -1 149 -186647585 -763956741 1880232598 -98905861
            -225951670 -30011319 -90640486 -99418608</internalNodes>
          <leafValues>
            -3.4408715367317200e-01 2.9315370321273804e-01</leafValues></_>
        <_>
          <internalNodes>
            0 -1 161 -1414858574 -41365504 322437200 -775060331
            -2008964440 -1417543664 251793297 -1960114800</internalNodes>
          <leafValues>
            -3.3606815338134766e-01 2.5886440277099609e-01</leafValues></_>
        <_>
          <internalNodes>
            0 -1 408 -229912486 -697073464 35684984 1393754131
            -230512504 -2112344064 -1974828294 -99988790</internalNodes>
          <leafValues>
            -1.8540510535240173e-01 4.1295987367630005e-01</leafValues></_>
        <_>
          <internalNodes>
            0 -1 328 -1290142729 -1078400808 1024130001 -3352324
            -1164428292 -2906981 -75220620 -1140981532</internalNodes>
          <leafValues>
            -3.2754042744636536e-01 2.5486958026885986e-01</leafValues></_>
        <_>
          <internalNodes>
            0 -1 40 -787824504 -741240320 1417875459 1363510336
            -1876915574 138444800 4621211 -750006248</internalNodes>
          <leafValues>
            -2.1590045094490051e-01 3.6487802863121033e-01</leafValues></_>
        <_>
          <internalNodes>
            0 -1 7 -286807322 -38722 -1008472133 -572653967 713000927
            -1074038785 -578322465 -162008105</internalNodes>
          <leafValues>
            -2.3885288834571838e-01 3.2896432280540466e-01</leafValues></_>
        <_>
          <internalNodes>
            0 -1 207 1056619411 983619316 971561200 -1083315566
            2054954218 1574490508 -106550 1119344358</internalNodes>
          <leafValues>
            -3.1952971220016479e-01 2.4409063160419464e-01</leafValues></_>
        <_>
          <internalNodes>
            0 -1 396 -1171853142 -1836965632 -1794476549 -14729060
            -2126335871 -2109733212 160406969 -808466279</internalNodes>
          <leafValues>
            -2.2694827616214752e-01 3.4018388390541077e-01</leafValues></_>
        <_>
          <internalNodes>
            0 -1 296 987757563 -1483040632 1074303985 -900824960
            -78753161 -1152675142 -377324586 -16845840</internalNodes>
          <leafValues>
            -3.1608906388282776e-01 2.4082656204700470e-01</leafValues></_>
        <_>
          <internalNodes>
            0 -1 179 -131089 -1196943888 875583356 254481152 -1793567540
            -1185930580 974788840 769472499</internalNodes>
          <leafValues>
            -3.2393345236778259e-01 2.5522732734680176e-01</leafValues></_>
        <_>
          <internalNodes>
            0 -1 410 -76682482 -755564429 -2113475655 -757344535
            -154750460 1950826563 -20935028 -232025361</internalNodes>
          <leafValues>
            -2.5114139914512634e-01 3.2438218593597412e-01</leafValues></_>
        <_>
          <internalNodes>
            0 -1 70 -880807389 -427351328 305397937 -615130843
            -1055602294 206432449 1364964482 -708079222</internalNodes>
          <leafValues>
            -2.2413939237594604e-01 3.4067004919052124e-01</leafValues></_>
        <_>
          <internalNodes>
            0 -1 419 -124784438 -71482878 1404043976 1434656907
            -1728019540 -2113795926 -1826833685 -1147174773</internalNodes>
          <leafValues>
            -1.4143963158130646e-01 4.8386415839195251e-01</leafValues></_>
        <_>
          <internalNodes>
            0 -1 169 -1081014693 -549912652 -1150628467 -538218896
            1412451804 1329463294 2129530462 251625311</internalNodes>
          <leafValues>
            -2.4635384976863861e-01 3.0564719438552856e-01</leafValues></_>
        <_>
          <internalNodes>
            0 -1 211 -3745537 235062032 1107739226 -1896198050
            -636348278 -1700593492 1792711264 -16989516</internalNodes>
          <leafValues>
            -3.9425721764564514e-01 1.9469191133975983e-01</leafValues></_>
        <_>
          <internalNodes>
            0 -1 27 -84938501 -232395029 -294756834 -550966708
            1465847343 843538266 -385891201 -82839953</internalNodes>
          <leafValues>
            -2.5247877836227417e-01 3.1098854541778564e-01</leafValues></_>
        <_>
          <internalNodes>
            0 -1 380 -77350016 -1953903986 -418721792 -203206258
            930992244 224633011 1903289440 -990406945</internalNodes>
          <leafValues>
            -4.0709197521209717e-01 1.9256661832332611e-01</leafValues></_>
        <_>
          <internalNodes>
            0 -1 134 805311696 353382468 2003829712 1409550865
            -1706012948 853763830 2043613070 1359941343</internalNodes>
          <leafValues>
            -4.4187328219413757e-01 1.6322503983974457e-01</leafValues></_>
        <_>
          <internalNodes>
            0 -1 21 -607137088 -541273968 42238609 -712931106 -805129590
            -1979545592 402821291 -1277431411</internalNodes>
          <leafValues>
            -1.9741591811180115e-01 4.0683749318122864e-01</leafValues></_>
        <_>
          <internalNodes>
            0 -1 258 107122129 469827092 -963204032 -1514081600
            1029445852 1548642749 -117675108 752122742</internalNodes>
          <leafValues>
            -3.9403447508811951e-01 1.9866248965263367e-01</leafValues></_>
        <_>
          <internalNodes>
            0 -1 435 -73142142 -739573008 296763504 1360072907
            -232476278 -2134899960 -1148538641 -753164133</internalNodes>
          <leafValues>
            -1.8485824763774872e-01 4.4597291946411133e-01</leafValues></_>
        <_>
          <internalNodes>
            0 -1 190 -170921727 -699959536 -52560964 689282813
            -118449219 -1436035155 921657217 537783823</internalNodes>
          <leafValues>
            -3.2140052318572998e-01 2.3957908153533936e-01</leafValues></_>
        <_>
          <internalNodes>
            0 -1 133 -1509240784 -611679535 1073763452 -42149647
            -1966409653 -1124562590 589565165 -906031072</internalNodes>
          <leafValues>
            -2.7740421891212463e-01 2.8026223182678223e-01</leafValues></_>
        <_>
          <internalNodes>
            0 -1 336 938851347 1996814433 -682707720 -1951535200
            -236688700 1593568313 -1192362114 619413495</internalNodes>
          <leafValues>
            -2.8449535369873047e-01 2.7238348126411438e-01</leafValues></_>
        <_>
          <internalNodes>
            0 -1 217 -706851603 1069171407 -815164961 1364767967
            -1324722056 -19070757 -695539016 -1634276560</internalNodes>
          <leafValues>
            -3.0760663747787476e-01 2.5295504927635193e-01</leafValues></_>
        <_>
          <internalNodes>
            0 -1 151 1532487920 2025616284 1004348216 993475200
            676877522 234961604 785134330 1728020174</internalNodes>
          <leafValues>
            -3.4639388322830200e-01 2.1571579575538635e-01</leafValues></_>
        <_>
          <internalNodes>
            0 -1 25 -1368928257 -87104266 -54903428 -138477890
            1937749951 1358069501 1677678463 -168297473</internalNodes>
          <leafValues>
            -2.2079505026340485e-01 3.3356136083602905e-01</leafValues></_>
        <_>
          <internalNodes>
            0 -1 400 -615029933 -1279811095 1780547830 -528525153
            -202744832 1814890273 673512164 -218629121</internalNodes>
          <leafValues>
            -2.8397873044013977e-01 2.6286962628364563e-01</leafValues></_>
        <_>
          <internalNodes>
            0 -1 62 -653277990 -204766544 -1068371255 -182516989
            -49112850 -502716864 -351815509 -552615237</internalNodes>
          <leafValues>
            -1.3871957361698151e-01 5.4816913604736328e-01</leafValues></_>
        <_>
          <internalNodes>
            0 -1 155 -1063212912 -555074850 1053028566 -1392190213
            -894782017 -1973957773 -1631761511 142672977</internalNodes>
          <leafValues>
            -3.2378044724464417e-01 2.4603340029716492e-01</leafValues></_>
        <_>
          <internalNodes>
            0 -1 289 373485847 1066194417 -1578835568 -1077087036
            1493453184 994796217 -152110998 582869492</internalNodes>
          <leafValues>
            -3.5731780529022217e-01 2.1058909595012665e-01</leafValues></_>
        <_>
          <internalNodes>
            0 -1 350 -557169571 -705963927 -498142465 -671785799
            -360133463 -388359027 -1207116901 -1170554945</internalNodes>
          <leafValues>
            -1.9602319598197937e-01 3.7030199170112610e-01</leafValues></_>
        <_>
          <internalNodes>
            0 -1 271 -813827247 -1138169040 1435401376 -609773376
            -917605924 225219064 2063338124 756545783</internalNodes>
          <leafValues>
            -3.2159492373466492e-01 2.4632228910923004e-01</leafValues></_>
        <_>
          <internalNodes>
            0 -1 237 1567906295 1069611184 -1871650587 1067605504
            1753749109 -867686357 -757769612 1825406006</internalNodes>
          <leafValues>
            -3.6379638314247131e-01 2.0392376184463501e-01</leafValues></_>
        <_>
          <internalNodes>
            0 -1 168 19169923 227603088 -360136701 -1476599564 515522782
            598665721 1861115164 918506352</internalNodes>
          <leafValues>
            -3.8759616017341614e-01 1.9285827875137329e-01</leafValues></_>
        <_>
          <internalNodes>
            0 -1 430 -190608648 -220964729 1093193963 -649240349
            -1315246406 -1865809408 -129332561 -764706597</internalNodes>
          <leafValues>
            -1.7072495818138123e-01 4.3512266874313354e-01</leafValues></_>
        <_>
          <internalNodes>
            0 -1 236 1895794431 1052524840 -2099539873 -834643786
            -79007301 -1701904328 -747734352 -27470860</internalNodes>
          <leafValues>
            -3.2366493344306946e-01 2.2563418745994568e-01</leafValues></_>
        <_>
          <internalNodes>
            0 -1 201 405275155 337180368 1107576384 -140179776 190712008
            2079079413 984771818 628583246</internalNodes>
          <leafValues>
            -3.4915173053741455e-01 2.1817843616008759e-01</leafValues></_>
        <_>
          <internalNodes>
            0 -1 99 1995563701 -900465717 409204472 -767406458
            -346585594 -212920197 -699935864 -136317187</internalNodes>
          <leafValues>
            -2.3444730043411255e-01 3.1563356518745422e-01</leafValues></_>
        <_>
          <internalNodes>
            0 -1 188 -49572198 -773514624 387996072 -134916646
            -266292342 -2143287805 -1286407266 -216462967</internalNodes>
          <leafValues>
            -1.8886013329029083e-01 3.9936962723731995e-01</leafValues></_>
        <_>
          <internalNodes>
            0 -1 370 2072592 -1648576081 -1020379215 -1581929986
            -1007711504 -2047637360 -1619019014 1295121399</internalNodes>
          <leafValues>
            -3.2257103919982910e-01 2.3143219947814941e-01</leafValues></_>
        <_>
          <internalNodes>
            0 -1 365 -1325039480 826361348 -2010529191 -104509232
            -1474323998 -1431122544 931262396 -1348480776</internalNodes>
          <leafValues>
            -2.4543428421020508e-01 3.1046840548515320e-01</leafValues></_>
        <_>
          <internalNodes>
            0 -1 323 2105540235 -1119108134 1360066882 -956641088
            859468302 -1144290645 -552582750 -25502987</internalNodes>
          <leafValues>
            -2.6227363944053650e-01 2.8007420897483826e-01</leafValues></_>
        <_>
          <internalNodes>
            0 -1 87 1648540322 -1112896858 1472519591 -304410158
            -341686039 1069525035 1638182798 1641219699</internalNodes>
          <leafValues>
            -3.4579095244407654e-01 2.2678950428962708e-01</leafValues></_>
        <_>
          <internalNodes>
            0 -1 177 -765623365 244336832 1476549324 -1086626440
            1481383580 1593573785 921888872 150960983</internalNodes>
          <leafValues>
            -2.9675731062889099e-01 2.5848510861396790e-01</leafValues></_>
        <_>
          <internalNodes>
            0 -1 360 1467851033 255185744 1333116064 -374474096
            -581477028 90136652 -637994996 1441136375</internalNodes>
          <leafValues>
            -3.3476608991622925e-01 2.2982160747051239e-01</leafValues></_>
        <_>
          <internalNodes>
            0 -1 158 -794778982 -1113481320 -794960386 -1996449913
            -443781917 -118547011 -20330147 500768543</internalNodes>
          <leafValues>
            -3.0128595232963562e-01 2.5257265567779541e-01</leafValues></_>
        <_>
          <internalNodes>
            0 -1 186 -2031074088 -747569076 2067890313 1533952919
            -637374244 -255094458 1799925656 -72743810</internalNodes>
          <leafValues>
            -2.6313501596450806e-01 2.9032474756240845e-01</leafValues></_>
        <_>
          <internalNodes>
            0 -1 109 -485969736 -274104136 -1051475823 -784498637
            -1869956882 -2100771696 1091224251 -619731839</internalNodes>
          <leafValues>
            -2.1552826464176178e-01 3.4575942158699036e-01</leafValues></_>
        <_>
          <internalNodes>
            0 -1 30 -82650182 -604140016 1547703132 -573341233
            -1575246614 -1592587106 55309963 -208934929</internalNodes>
          <leafValues>
            -1.3052882254123688e-01 5.4939687252044678e-01</leafValues></_>
        <_>
          <internalNodes>
            0 -1 203 697416401 1040732346 369098883 -380014416
            1508395229 -1713439842 -152024508 921531261</internalNodes>
          <leafValues>
            -3.0466648936271667e-01 2.4988293647766113e-01</leafValues></_>
        <_>
          <internalNodes>
            0 -1 349 -824246271 -21283515 -567731555 -1815278233
            1252431550 -121943923 -1167932709 855754771</internalNodes>
          <leafValues>
            -3.6498290300369263e-01 2.1321865916252136e-01</leafValues></_>
        <_>
          <internalNodes>
            0 -1 364 -1694182437 -1277656848 948015469 -1057223948
            -2115718507 -1146895701 285832167 -1949351444</internalNodes>
          <leafValues>
            -2.6604932546615601e-01 2.7773749828338623e-01</leafValues></_>
        <_>
          <internalNodes>
            0 -1 160 335614082 1027343322 353656186 1472549734
            1485724124 1518865079 -234126594 1550738974</internalNodes>
          <leafValues>
            -3.9814102649688721e-01 1.8311108648777008e-01</leafValues></_>
        <_>
          <internalNodes>
            0 -1 171 820724659 516609177 -1673441065 -794903864
            -1002829637 -1835331354 -254658222 -218702879</internalNodes>
          <leafValues>
            -2.9932045936584473e-01 2.5235503911972046e-01</leafValues></_>
        <_>
          <internalNodes>
            0 -1 235 -1918321261 -214386050 -17005136 -5243915
            -1636542994 521469949 -54467910 1750023935</internalNodes>
          <leafValues>
            -2.3848766088485718e-01 3.2287225127220154e-01</leafValues></_>
        <_>
          <internalNodes>
            0 -1 351 -847785906 1490653775 1685842781 192367478
            -355811708 -1366524453 -1274824456 -234190209</internalNodes>
          <leafValues>
            -2.2104744613170624e-01 3.4738597273826599e-01</leafValues></_>
        <_>
          <internalNodes>
            0 -1 214 -594324739 586865170 -804138859 678093208
            1628066442 -1777258102 1235276388 -97977712</internalNodes>
          <leafValues>
            -4.1071441769599915e-01 1.9026549160480499e-01</leafValues></_>
        <_>
          <internalNodes>
            0 -1 250 1346478330 -198381577 -38339081 796090011
            1129822811 -537395779 1969080222 2102656734</internalNodes>
          <leafValues>
            -2.4751463532447815e-01 3.0472755432128906e-01</leafValues></_>
        <_>
          <internalNodes>
            0 -1 33 -753807120 1900708804 464701844 1534464884
            -149970807 -1440733436 -116817717 -946093591</internalNodes>
          <leafValues>
            -1.9154128432273865e-01 4.0202063322067261e-01</leafValues></_>
        <_>
          <internalNodes>
            0 -1 340 -1721779659 488208512 -1316040608 -1962544914
            1767223888 962314456 -925100976 1295506551</internalNodes>
          <leafValues>
            -3.6492121219635010e-01 2.1044054627418518e-01</leafValues></_>
        <_>
          <internalNodes>
            0 -1 249 -559132272 952369316 -652951073 2065170591
            -1052742716 -342617951 -118998340 -1409675244</internalNodes>
          <leafValues>
            -3.3460396528244019e-01 2.1621231734752655e-01</leafValues></_>
        <_>
          <internalNodes>
            0 -1 310 -733641001 -34439199 -272802023 -1147601612
            -1770545990 -25952391 -1078567202 910122463</internalNodes>
          <leafValues>
            -1.9647383689880371e-01 3.8952389359474182e-01</leafValues></_>
        <_>
          <internalNodes>
            0 -1 2 -494706077 465016559 -1735295057 -1371368221
            662272989 -1955628355 -570730789 214221911</internalNodes>
          <leafValues>
            -3.3609977364540100e-01 2.2825403511524200e-01</leafValues></_>
        <_>
          <internalNodes>
            0 -1 270 925873147 -2020818672 -167415567 1876219372
            -1195883621 151683611 -96801996 -86314316</internalNodes>
          <leafValues>
            -3.2787874341011047e-01 2.3482191562652588e-01</leafValues></_>
        <_>
          <internalNodes>
            0 -1 348 -405974912 1427111977 -983641893 1431375873
            -1744526976 -1828683455 -1085867919 -134082398</internalNodes>
          <leafValues>
            -2.7751749753952026e-01 2.9085451364517212e-01</leafValues></_>
        <_>
          <internalNodes>
            0 -1 14 -183829270 -238319416 -1761512951 -750156599
            -1247566135 -1768889720 -222329925 -74472821</internalNodes>
          <leafValues>
            -1.4243951439857483e-01 5.5382156372070312e-01</leafValues></_>
        <_>
          <internalNodes>
            0 -1 329 -109316557 915058768 -539283593 1039627620
            250738903 217824360 51280829 -1996560177</internalNodes>
          <leafValues>
            -2.1961867809295654e-01 3.5080775618553162e-01</leafValues></_>
        <_>
          <internalNodes>
            0 -1 216 -845348993 -1599551948 -1391590910 804196412
            1594674168 -1115668752 -1346684178 1859227226</internalNodes>
          <leafValues>
            -2.7687597274780273e-01 2.7220687270164490e-01</leafValues></_>
        <_>
          <internalNodes>
            0 -1 434 -247470646 -238070514 1470489057 -168843075
            -1146778962 -2016882148 -97787157 -10489701</internalNodes>
          <leafValues>
            -1.2312199920415878e-01 6.4259207248687744e-01</leafValues></_></weakClassifiers></_>
    <!-- stage 3 -->
    <_>
      <maxWeakCount>100</maxWeakCount>
      <stageThreshold>4.7397899627685547e-01</stageThreshold>
      <weakClassifiers>
        <_>
          <internalNodes>
            0 -1 9 -502864145 -1048629 2145910783 -1 -881328161 -2057
            -42467329 -145229961</internalNodes>
          <leafValues>
            -2.8162345290184021e-01 3.6111435294151306e-01</leafValues></_>
        <_>
          <internalNodes>
            0 -1 378 -1027 -1717962096 -642261264 -578112264 1333777909
            222297067 1551879420 234878198</internalNodes>
          <leafValues>
            -3.1310582160949707e-01 2.5063049793243408e-01</leafValues></_>
        <_>
          <internalNodes>
            0 -1 369 -537137199 -789145 -508569769 -980419593
            -1117539712 -51153739 -1073746949 83868347</internalNodes>
          <leafValues>
            -2.6443916559219360e-01 2.6715892553329468e-01</leafValues></_>
        <_>
          <internalNodes>
            0 -1 277 1564301823 1054669277 -73860097 -1342376996
            -367256068 -100998501 -270648724 -1095093252</internalNodes>
          <leafValues>
            -3.1536105275154114e-01 2.2119897603988647e-01</leafValues></_>
        <_>
          <internalNodes>
            0 -1 28 -633409537 -536968482 732711902 -11641090 1451164925
            1819561215 -25817089 2147448831</internalNodes>
          <leafValues>
            -2.3767989873886108e-01 2.7299624681472778e-01</leafValues></_>
        <_>
          <internalNodes>
            0 -1 118 1610084335 -210060584 2125122716 -296174 -558310216
            1327544314 -12919672 2130665307</internalNodes>
          <leafValues>
            -2.2270306944847107e-01 2.9166600108146667e-01</leafValues></_>
        <_>
          <internalNodes>
            0 -1 363 929030135 -1893027168 -640821391 -819138600
            1057976701 -1616059658 1607357429 -860040748</internalNodes>
          <leafValues>
            -3.6750850081443787e-01 1.4210514724254608e-01</leafValues></_>
        <_>
          <internalNodes>
            0 -1 272 -987777264 -1138675271 -861437600 -1918381980
            -911215064 75344728 -121661206 1282931447</internalNodes>
          <leafValues>
            -2.8702443838119507e-01 2.2533892095088959e-01</leafValues></_>
        <_>
          <internalNodes>
            0 -1 399 -1843609 2034178647 82509499 823649103 -1635856828
            -109357743 -92472612 -96735505</internalNodes>
          <leafValues>
            -2.0325748622417450e-01 2.9938393831253052e-01</leafValues></_>
        <_>
          <internalNodes>
            0 -1 140 2135183105 -1081542392 2092444740 -134912320
            1291721908 534016399 2130595340 1995854834</internalNodes>
          <leafValues>
            -2.7370837330818176e-01 2.2249285876750946e-01</leafValues></_>
        <_>
          <internalNodes>
            0 -1 174 1478786697 234921816 -995439936 -1414354320
            507529870 1605411263 1877624904 922214132</internalNodes>
          <leafValues>
            -3.7830263376235962e-01 1.2784682214260101e-01</leafValues></_>
        <_>
          <internalNodes>
            0 -1 170 908196243 -1164389612 -402479408 -571648496
            1947752590 1333311998 -1170813366 884963678</internalNodes>
          <leafValues>
            -2.5199189782142639e-01 2.3109772801399231e-01</leafValues></_>
        <_>
          <internalNodes>
            0 -1 260 956265399 -1093446937 -1739146909 1314848724
            -785690423 -1081111907 196504400 -86188172</internalNodes>
          <leafValues>
            -3.0115944147109985e-01 1.9142082333564758e-01</leafValues></_>
        <_>
          <internalNodes>
            0 -1 105 -255338880 -746517840 1092620816 -775471089
            -379542886 -1567481328 855687821 1394328509</internalNodes>
          <leafValues>
            -2.0183938741683960e-01 2.8190413117408752e-01</leafValues></_>
        <_>
          <internalNodes>
            0 -1 55 -1360261586 -294751514 1693214447 -810597458
            -159733924 -824571400 1564821181 1609268223</internalNodes>
          <leafValues>
            -3.1105098128318787e-01 1.8073320388793945e-01</leafValues></_>
        <_>
          <internalNodes>
            0 -1 195 1477761173 -1089677120 -1642017788 -306839658
            1522156137 -17108757 -1378066488 635916870</internalNodes>
          <leafValues>
            -2.4436937272548676e-01 2.3514030873775482e-01</leafValues></_>
        <_>
          <internalNodes>
            0 -1 243 -162153641 -617025424 531918256 -269799008
            190117972 2069422268 -826385906 655867383</internalNodes>
          <leafValues>
            -2.6586297154426575e-01 2.1417574584484100e-01</leafValues></_>
        <_>
          <internalNodes>
            0 -1 377 1361049503 520264424 -2087853094 -415970428
            -298946499 -894203250 1493976816 -1004735020</internalNodes>
          <leafValues>
            -3.2683598995208740e-01 1.8085488677024841e-01</leafValues></_>
        <_>
          <internalNodes>
            0 -1 320 -573449951 1603383768 -2027051616 -583272303
            -1914790452 147897332 -1357449142 523761267</internalNodes>
          <leafValues>
            -2.6580965518951416e-01 2.2012835741043091e-01</leafValues></_>
        <_>
          <internalNodes>
            0 -1 37 -922836650 -12651662 -599911588 -574685316 937276415
            2052767410 -898601122 2038398811</internalNodes>
          <leafValues>
            -3.1808787584304810e-01 1.8551483750343323e-01</leafValues></_>
        <_>
          <internalNodes>
            0 -1 290 1532973823 -2046887270 1523794903 1125831646
            -1678505373 -2369797 2049965173 -1093732364</internalNodes>
          <leafValues>
            -2.5634840130805969e-01 2.2085122764110565e-01</leafValues></_>
        <_>
          <internalNodes>
            0 -1 52 -773070192 -112811904 326867376 -15092713
            -2111647318 -216461004 -519929109 -585919544</internalNodes>
          <leafValues>
            -1.5952228009700775e-01 3.4657749533653259e-01</leafValues></_>
        <_>
          <internalNodes>
            0 -1 304 1465644801 1399828395 -855658565 143670203
            1341111707 -617095265 -556013894 1210507099</internalNodes>
          <leafValues>
            -2.7680605649948120e-01 2.0541989803314209e-01</leafValues></_>
        <_>
          <internalNodes>
            0 -1 326 357096447 -1431243880 -699901958 -2038647819
            -3380834 -605306115 -623020240 -1902184304</internalNodes>
          <leafValues>
            -3.3685073256492615e-01 1.6237379610538483e-01</leafValues></_>
        <_>
          <internalNodes>
            0 -1 116 358221519 497208480 -827832820 -1447335388
            1095239932 1517519869 2097044348 1990716404</internalNodes>
          <leafValues>
            -2.6628974080085754e-01 2.1630871295928955e-01</leafValues></_>
        <_>
          <internalNodes>
            0 -1 202 1020896147 1910964195 -4391264 -571218409
            -1124187000 -19071106 1822872794 123174895</internalNodes>
          <leafValues>
            -2.1565954387187958e-01 2.5895506143569946e-01</leafValues></_>
        <_>
          <internalNodes>
            0 -1 162 -1433732173 -562129616 -106703805 -581386112
            -1413566982 -392694125 -1896253271 -873787344</internalNodes>
          <leafValues>
            -2.0890767872333527e-01 2.6365828514099121e-01</leafValues></_>
        <_>
          <internalNodes>
            0 -1 148 1392176879 -929253628 2059029004 1063467626
            -778195256 1606421944 -153384082 9682675</internalNodes>
          <leafValues>
            -2.6617643237113953e-01 2.1094539761543274e-01</leafValues></_>
        <_>
          <internalNodes>
            0 -1 244 444791293 -1572028087 1342890682 245396956
            1445546106 -1408315447 -1143058668 -17121356</internalNodes>
          <leafValues>
            -3.5362738370895386e-01 1.8298693001270294e-01</leafValues></_>
        <_>
          <internalNodes>
            0 -1 45 -722738040 1905008777 84019280 423727234 -1574262136
            16782220 -2113765174 319055513</internalNodes>
          <leafValues>
            -3.0227419734001160e-01 1.8588532507419586e-01</leafValues></_>
        <_>
          <internalNodes>
            0 -1 401 1369161270 -1751218390 925702480 -236529672
            495852472 230880287 1203060188 502910718</internalNodes>
          <leafValues>
            -2.6856142282485962e-01 2.1304282546043396e-01</leafValues></_>
        <_>
          <internalNodes>
            0 -1 125 1597706460 2048196931 -1744789011 436219007
            -867500024 1446709292 -133512486 1526882040</internalNodes>
          <leafValues>
            -3.4284952282905579e-01 1.6175806522369385e-01</leafValues></_>
        <_>
          <internalNodes>
            0 -1 417 -654061374 -1788573528 722834961 -787021633
            -1635587446 -827375031 -1237602129 -1752460897</internalNodes>
          <leafValues>
            -1.4248999953269958e-01 3.7989559769630432e-01</leafValues></_>
        <_>
          <internalNodes>
            0 -1 402 -14823757 631475882 -1926257376 -274313440
            -1222422478 226104727 1609876224 -184572164</internalNodes>
          <leafValues>
            -2.8408861160278320e-01 1.9064642488956451e-01</leafValues></_>
        <_>
          <internalNodes>
            0 -1 334 1895822047 326211618 948916357 743085271 2131516037
            -1280636147 1516116720 -27994396</internalNodes>
          <leafValues>
            -2.6847511529922485e-01 2.0114913582801819e-01</leafValues></_>
        <_>
          <internalNodes>
            0 -1 114 1025518823 -98501907 1017961672 1334312465
            1316809853 -103385096 -1460400483 247431167</internalNodes>
          <leafValues>
            -2.2958435118198395e-01 2.5406551361083984e-01</leafValues></_>
        <_>
          <internalNodes>
            0 -1 223 -1063146989 -78076262 -1730796073 -1114100865
            -174677575 -1669618692 -1188094153 549522009</internalNodes>
          <leafValues>
            -2.5721901655197144e-01 2.1599867939949036e-01</leafValues></_>
        <_>
          <internalNodes>
            0 -1 147 -1450429854 798299416 1306394044 2123966104
            -1481700934 927292412 -1336235338 1863709296</internalNodes>
          <leafValues>
            -3.4248498082160950e-01 1.5815609693527222e-01</leafValues></_>
        <_>
          <internalNodes>
            0 -1 206 1385559039 1045978568 1375790230 1727314196
            323896447 -49681686 319299152 443873252</internalNodes>
          <leafValues>
            -4.1767513751983643e-01 1.3725019991397858e-01</leafValues></_>
        <_>
          <internalNodes>
            0 -1 71 -1010072416 -999785790 -603455471 1971208788
            -2067534699 -1967897583 1368010880 1440973184</internalNodes>
          <leafValues>
            -3.1407850980758667e-01 1.7363153398036957e-01</leafValues></_>
        <_>
          <internalNodes>
            0 -1 353 668930384 -923402493 -377422811 -734152619
            1388237384 1222356153 1527135410 374341247</internalNodes>
          <leafValues>
            -2.9931840300559998e-01 1.8371804058551788e-01</leafValues></_>
        <_>
          <internalNodes>
            0 -1 239 2088596951 -753528388 -1123771684 790620084
            -868213910 1500815536 -85324184 715857791</internalNodes>
          <leafValues>
            -2.2966147959232330e-01 2.3388496041297913e-01</leafValues></_>
        <_>
          <internalNodes>
            0 -1 297 1350532607 -1208171155 1350955093 -1570310684
            1541632309 -558706545 -618112156 -19075596</internalNodes>
          <leafValues>
            -3.4140175580978394e-01 1.6988861560821533e-01</leafValues></_>
        <_>
          <internalNodes>
            0 -1 97 1789370111 -873415820 618684417 -281050558
            1550700010 -419604489 -768351380 1593304572</internalNodes>
          <leafValues>
            -2.3158565163612366e-01 2.5687763094902039e-01</leafValues></_>
        <_>
          <internalNodes>
            0 -1 167 2038515539 396030746 -1406916270 134048260
            1482181353 728424875 -307081458 653682533</internalNodes>
          <leafValues>
            -2.7039715647697449e-01 2.1125720441341400e-01</leafValues></_>
        <_>
          <internalNodes>
            0 -1 193 420558019 -1146399092 202592128 2104909653
            -1664326247 519618559 656920507 925847119</internalNodes>
          <leafValues>
            -2.2141475975513458e-01 2.6074728369712830e-01</leafValues></_>
        <_>
          <internalNodes>
            0 -1 227 -241369088 -362892154 456281364 -753339777
            1461713720 1789577917 1919371022 154333731</internalNodes>
          <leafValues>
            -4.6752500534057617e-01 1.2051469087600708e-01</leafValues></_>
        <_>
          <internalNodes>
            0 -1 404 -776208686 -1345811760 469591859 -209607328
            -1628920166 723452142 567799981 -907295494</internalNodes>
          <leafValues>
            -1.8730564415454865e-01 2.9844665527343750e-01</leafValues></_>
        <_>
          <internalNodes>
            0 -1 256 481508995 -728048091 -1803186923 1296064990
            497949947 -743800110 1884029440 1750915908</internalNodes>
          <leafValues>
            -3.2529640197753906e-01 1.7833915352821350e-01</leafValues></_>
        <_>
          <internalNodes>
            0 -1 423 -676468070 1352370210 1111085584 412155970
            -1433496568 1080692006 -2138576742 -754840951</internalNodes>
          <leafValues>
            -2.3719879984855652e-01 2.3695681989192963e-01</leafValues></_>
        <_>
          <internalNodes>
            0 -1 103 -354615825 452369886 2017132254 -83637698
            1249857608 1350327221 2116837118 2129353591</internalNodes>
          <leafValues>
            -2.1131795644760132e-01 2.5342777371406555e-01</leafValues></_>
        <_>
          <internalNodes>
            0 -1 300 -754812457 -1610695592 -1979673801 -1344398636
            -808392947 -82280272 -1276396711 -1426152452</internalNodes>
          <leafValues>
            -2.4650412797927856e-01 2.3101398348808289e-01</leafValues></_>
        <_>
          <internalNodes>
            0 -1 104 1354597042 -1601394325 -1321257505 79995155
            1687156023 -1166374689 -18320269 1165335439</internalNodes>
          <leafValues>
            -2.8900507092475891e-01 2.0070584118366241e-01</leafValues></_>
        <_>
          <internalNodes>
            0 -1 319 336811607 -1198198215 -1651943847 76333532
            1432295264 2016215688 470706704 68970052</internalNodes>
          <leafValues>
            -5.3875851631164551e-01 9.6227757632732391e-02</leafValues></_>
        <_>
          <internalNodes>
            0 -1 233 2021773475 1037235124 -721256039 -1398739600
            -97502872 -1084434001 -127702110 865435219</internalNodes>
          <leafValues>
            -2.4975480139255524e-01 2.3799575865268707e-01</leafValues></_>
        <_>
          <internalNodes>
            0 -1 154 -77080952 -710999976 -201033996 -182774246
            -1383358038 -2145163084 -82966132 1933280831</internalNodes>
          <leafValues>
            -1.8723841011524200e-01 3.1302973628044128e-01</leafValues></_>
        <_>
          <internalNodes>
            0 -1 388 -738239395 -646490038 -503750977 -2096129727
            -429916604 -398532956 -624893202 -1174148165</internalNodes>
          <leafValues>
            -2.0551912486553192e-01 2.7292957901954651e-01</leafValues></_>
        <_>
          <internalNodes>
            0 -1 397 73835034 -1291327589 725550087 -1219149985
            -1184003406 -1460961492 -26769982 1611707009</internalNodes>
          <leafValues>
            -2.7825012803077698e-01 2.0706324279308319e-01</leafValues></_>
        <_>
          <internalNodes>
            0 -1 338 1030617913 933811068 -1823898629 -1372661548
            -517628 -24531906 -61585311 1348213732</internalNodes>
          <leafValues>
            -4.3992432951927185e-01 1.2484135478734970e-01</leafValues></_>
        <_>
          <internalNodes>
            0 -1 421 -640421637 -103666520 1158108113 1498116386
            -871632725 -1899864672 458983359 -552622102</internalNodes>
          <leafValues>
            -1.3465243577957153e-01 4.4153720140457153e-01</leafValues></_>
        <_>
          <internalNodes>
            0 -1 80 1276038950 872439238 422297362 186228262 128768852
            797811296 -2098354144 144829488</internalNodes>
          <leafValues>
            -4.4631519913673401e-01 1.3085465133190155e-01</leafValues></_>
        <_>
          <internalNodes>
            0 -1 129 -683046744 -159831550 813875378 1362306142
            -1350375286 -2113912832 -1381777270 1405815433</internalNodes>
          <leafValues>
            -2.1645207703113556e-01 2.4879762530326843e-01</leafValues></_>
        <_>
          <internalNodes>
            0 -1 281 -1173381553 169127688 -1716642786 289798557
            -874515464 -340027425 -281281100 -1678116751</internalNodes>
          <leafValues>
            -1.8832021951675415e-01 2.8326559066772461e-01</leafValues></_>
        <_>
          <internalNodes>
            0 -1 255 1315415169 471583704 1066326629 -1089778972
            1037126109 733654154 -1378353188 786787079</internalNodes>
          <leafValues>
            -2.6211988925933838e-01 2.1689122915267944e-01</leafValues></_>
        <_>
          <internalNodes>
            0 -1 291 1548973463 993066816 241454792 802127004 1347963296
            1568506553 -499636132 2055565142</internalNodes>
          <leafValues>
            -2.9267820715904236e-01 1.9368757307529449e-01</leafValues></_>
        <_>
          <internalNodes>
            0 -1 93 2120148655 -371573058 -297087266 -35674492
            1663059164 1346211756 -759792868 2054642645</internalNodes>
          <leafValues>
            -2.3836325109004974e-01 2.3106189072132111e-01</leafValues></_>
        <_>
          <internalNodes>
            0 -1 245 351763197 966681341 1620367613 802463708
            -1723316072 -113351544 -618726340 -1158519903</internalNodes>
          <leafValues>
            -3.0475527048110962e-01 1.8319334089756012e-01</leafValues></_>
        <_>
          <internalNodes>
            0 -1 65 -540945256 -172264502 1671463578 -250691475
            -281814904 -1968980912 -1249263654 -783119430</internalNodes>
          <leafValues>
            -1.7764401435852051e-01 3.4623399376869202e-01</leafValues></_>
        <_>
          <internalNodes>
            0 -1 274 2036202411 1014499668 -1487471856 -1483340148
            316684221 -1070625 1054506974 649457639</internalNodes>
          <leafValues>
            -2.3910750448703766e-01 2.3928105831146240e-01</leafValues></_>
        <_>
          <internalNodes>
            0 -1 247 -1207984703 884929361 1393284724 801824159
            -591163419 154659753 1406294392 182451107</internalNodes>
          <leafValues>
            -2.7541393041610718e-01 2.0040872693061829e-01</leafValues></_>
        <_>
          <internalNodes>
            0 -1 88 938227831 -207745344 1508667275 1169099427
            -706953228 -548274443 396607198 1341612202</internalNodes>
          <leafValues>
            -2.0026178658008575e-01 2.7821874618530273e-01</leafValues></_>
        <_>
          <internalNodes>
            0 -1 180 1525637855 -1124371500 1950340821 708472062
            423382782 -1641520519 1138262859 -28641419</internalNodes>
          <leafValues>
            -2.6765942573547363e-01 2.1278038620948792e-01</leafValues></_>
        <_>
          <internalNodes>
            0 -1 98 1140998732 -1012204946 1277297309 252458305
            -877674235 1394587723 -1732752756 1127957071</internalNodes>
          <leafValues>
            -2.7445530891418457e-01 2.0449887216091156e-01</leafValues></_>
        <_>
          <internalNodes>
            0 -1 403 -246753351 -1406484312 -1245914736 -741498064
            1547264749 280021434 1091154400 -992033579</internalNodes>
          <leafValues>
            -2.7132004499435425e-01 2.1111005544662476e-01</leafValues></_>
        <_>
          <internalNodes>
            0 -1 15 778210922 2061231559 1800383948 246396685
            -1798425840 2049046616 1498500523 1512469343</internalNodes>
          <leafValues>
            -4.5610085129737854e-01 1.3402508199214935e-01</leafValues></_>
        <_>
          <internalNodes>
            0 -1 368 -1058896182 -900221070 1409499466 1213294791
            -2145998528 -1770905592 1783292876 1920628873</internalNodes>
          <leafValues>
            -3.0983304977416992e-01 1.8189024925231934e-01</leafValues></_>
        <_>
          <internalNodes>
            0 -1 395 239776640 -1849550388 -249965633 -617889392
            -1160836991 -1960689224 1032520149 90141896</internalNodes>
          <leafValues>
            -3.3743864297866821e-01 1.6746474802494049e-01</leafValues></_>
        <_>
          <internalNodes>
            0 -1 204 2041303731 -7291175 -571167091 -36868157 1040993948
            532578301 -1090650454 1862221790</internalNodes>
          <leafValues>
            -1.6952577233314514e-01 3.2851043343544006e-01</leafValues></_>
        <_>
          <internalNodes>
            0 -1 357 2086098555 1071517936 -1788525055 -102374916
            -677559200 -13735377 1108236560 1378926452</internalNodes>
          <leafValues>
            -4.0497237443923950e-01 1.4507335424423218e-01</leafValues></_>
        <_>
          <internalNodes>
            0 -1 311 -111859392 -316901669 1453236000 -402645944
            -1444569716 1492572238 780201506 821022355</internalNodes>
          <leafValues>
            -3.6885923147201538e-01 1.6050066053867340e-01</leafValues></_>
        <_>
          <internalNodes>
            0 -1 69 -961869209 -542213366 1507812506 -413842210
            -534834949 78430630 670249097 1364684832</internalNodes>
          <leafValues>
            -2.5599959492683411e-01 2.2606451809406281e-01</leafValues></_>
        <_>
          <internalNodes>
            0 -1 287 446392465 -1631799657 405123171 173824967 866739809
            467405486 285425492 370421316</internalNodes>
          <leafValues>
            -4.5382809638977051e-01 1.2346052378416061e-01</leafValues></_>
        <_>
          <internalNodes>
            0 -1 384 -252250968 -1713822648 1293219096 -274265
            -894894914 74294436 -1876775173 -642006341</internalNodes>
          <leafValues>
            -1.5803962945938110e-01 3.8931143283843994e-01</leafValues></_>
        <_>
          <internalNodes>
            0 -1 136 -1979018454 -1460866430 1317304379 -46602926
            -859343023 -1400868688 218570099 1230798160</internalNodes>
          <leafValues>
            -3.6996126174926758e-01 1.5419323742389679e-01</leafValues></_>
        <_>
          <internalNodes>
            0 -1 433 393685277 -1324367707 -2122172248 424634557
            303503790 713688017 139708812 1095029673</internalNodes>
          <leafValues>
            -2.8617632389068604e-01 1.9251348078250885e-01</leafValues></_>
        <_>
          <internalNodes>
            0 -1 91 -1144713530 -276786462 1250474496 2024503810
            693942972 -397397198 -26455362 1113577470</internalNodes>
          <leafValues>
            -2.8724122047424316e-01 1.8924663960933685e-01</leafValues></_>
        <_>
          <internalNodes>
            0 -1 153 -249892130 -785366874 542129294 -205035081
            -936127569 -1610430051 -2000606385 -607398421</internalNodes>
          <leafValues>
            -1.3321825861930847e-01 4.2251628637313843e-01</leafValues></_>
        <_>
          <internalNodes>
            0 -1 144 341298409 651192834 1402226892 112898279 1202589772
            2042038411 1505237092 1918166884</internalNodes>
          <leafValues>
            -4.8554176092147827e-01 1.2393748760223389e-01</leafValues></_>
        <_>
          <internalNodes>
            0 -1 347 553124352 -1440267521 -341181974 783071298
            -1335643619 -1079251723 -1364498014 82878273</internalNodes>
          <leafValues>
            -4.6704021096229553e-01 1.1759208887815475e-01</leafValues></_>
        <_>
          <internalNodes>
            0 -1 19 1112213366 2083029054 1217575461 1305169518
            -251533891 -1764453416 1880542469 1348554900</internalNodes>
          <leafValues>
            -3.1434330344200134e-01 1.7604196071624756e-01</leafValues></_>
        <_>
          <internalNodes>
            0 -1 187 1224040183 1223856444 153747786 454543708
            1915252497 1521263324 785960200 1579747618</internalNodes>
          <leafValues>
            -2.8371560573577881e-01 1.9254587590694427e-01</leafValues></_>
        <_>
          <internalNodes>
            0 -1 266 897459955 478433504 16839357 239624668 -1342417998
            200249576 420352577 609770852</internalNodes>
          <leafValues>
            -5.0449168682098389e-01 1.0633933544158936e-01</leafValues></_>
        <_>
          <internalNodes>
            0 -1 112 1034894503 1938685690 746994306 1301671427
            2130503636 -621936784 1785659307 1601141503</internalNodes>
          <leafValues>
            -1.8398602306842804e-01 3.1737172603607178e-01</leafValues></_>
        <_>
          <internalNodes>
            0 -1 29 467498982 -1160817332 708309614 -1404481022
            184682209 654420154 -984261018 39528131</internalNodes>
          <leafValues>
            -4.8301547765731812e-01 1.1604646593332291e-01</leafValues></_>
        <_>
          <internalNodes>
            0 -1 316 -985492011 1060164541 -1512324223 -1365751076
            1883521164 509196857 2062670490 2130179567</internalNodes>
          <leafValues>
            -2.1298366785049438e-01 2.6295322179794312e-01</leafValues></_>
        <_>
          <internalNodes>
            0 -1 343 1983313847 -1507272734 1481101761 -854658660
            458169825 -73351100 1535917392 -1944161724</internalNodes>
          <leafValues>
            -3.5901576280593872e-01 1.5731784701347351e-01</leafValues></_>
        <_>
          <internalNodes>
            0 -1 429 -544220997 -202237787 -395813064 -782433858
            -761867333 -1953890100 -1926330197 -608191333</internalNodes>
          <leafValues>
            -1.1403865367174149e-01 5.0902676582336426e-01</leafValues></_>
        <_>
          <internalNodes>
            0 -1 381 963131491 -2055042568 306762020 -375989812 57341981
            1004920988 193534177 -1932622456</internalNodes>
          <leafValues>
            -3.3283042907714844e-01 1.7350471019744873e-01</leafValues></_>
        <_>
          <internalNodes>
            0 -1 424 359112994 1567983874 1728091202 1092995598
            -883610266 1090110560 -1090015590 -1073626168</internalNodes>
          <leafValues>
            -2.5276562571525574e-01 2.2339677810668945e-01</leafValues></_>
        <_>
          <internalNodes>
            0 -1 115 -295705853 998820589 246367304 -1109463475
            271609851 1743257084 1624645629 -136681492</internalNodes>
          <leafValues>
            -2.1314772963523865e-01 2.7409353852272034e-01</leafValues></_></weakClassifiers></_>
    <!-- stage 4 -->
    <_>
      <maxWeakCount>100</maxWeakCount>
      <stageThreshold>4.3800733983516693e-03</stageThreshold>
      <weakClassifiers>
        <_>
          <internalNodes>
            0 -1 10 -1364268297 -37783553 -576716809 -4202505 -277940289
            -548865 -69468165 -8400161</internalNodes>
          <leafValues>
            -1.8569590151309967e-01 3.9892885088920593e-01</leafValues></_>
        <_>
          <internalNodes>
            0 -1 218 -102805249 2138980191 -1107297441 859450047
            -1142417924 -605131717 -623837286 -1148568646</internalNodes>
          <leafValues>
            -2.2727879881858826e-01 2.6704782247543335e-01</leafValues></_>
        <_>
          <internalNodes>
            0 -1 95 -547359777 2134048718 -776569862 2134610874 -8515604
            1546338622 728948506 1543200314</internalNodes>
          <leafValues>
            -2.1952743828296661e-01 2.5797849893569946e-01</leafValues></_>
        <_>
          <internalNodes>
            0 -1 183 -590391813 -1275518259 -558706209 470971262
            -217430852 -306642835 -550843432 -635279616</internalNodes>
          <leafValues>
            -3.2842198014259338e-01 1.4107176661491394e-01</leafValues></_>
        <_>
          <internalNodes>
            0 -1 196 1544085717 -1719473248 1875537424 -1913862064
            1517045965 2140974059 -1164948920 787445735</internalNodes>
          <leafValues>
            -2.7416199445724487e-01 2.0367339253425598e-01</leafValues></_>
        <_>
          <internalNodes>
            0 -1 209 -25166887 252183212 -637527984 -1618804016
            2019312536 1500166320 -1196537186 369614806</internalNodes>
          <leafValues>
            -2.5830218195915222e-01 1.9480995833873749e-01</leafValues></_>
        <_>
          <internalNodes>
            0 -1 432 -232734584 -184516086 536920220 1636107514
            941265634 -2055073788 318810283 1394279051</internalNodes>
          <leafValues>
            -1.8702915310859680e-01 2.4408225715160370e-01</leafValues></_>
        <_>
          <internalNodes>
            0 -1 324 517938427 -1612915551 1533091539 -430024523
            -87147664 -1081424773 -9426123 -22261260</internalNodes>
          <leafValues>
            -3.3009263873100281e-01 1.2666806578636169e-01</leafValues></_>
        <_>
          <internalNodes>
            0 -1 285 1574807957 -12846959 -2023980000 -1077944460
            2138922380 968821179 -1126896118 905961254</internalNodes>
          <leafValues>
            -2.2014369070529938e-01 2.1465751528739929e-01</leafValues></_>
        <_>
          <internalNodes>
            0 -1 406 -204741486 -682601848 -2147481848 -641923379
            -494230818 -2140240928 36734351 -83128177</internalNodes>
          <leafValues>
            -1.3737575709819794e-01 3.3525362610816956e-01</leafValues></_>
        <_>
          <internalNodes>
            0 -1 35 -456154381 -16014731 -471590457 436040954 -813710401
            -1161845381 1074264027 1168164071</internalNodes>
          <leafValues>
            -2.4428950250148773e-01 1.8673104047775269e-01</leafValues></_>
        <_>
          <internalNodes>
            0 -1 295 2145330135 1421475548 -2063776524 1068740796
            1375456756 1347739324 267842586 2146959271</internalNodes>
          <leafValues>
            -1.7505632340908051e-01 2.6825225353240967e-01</leafValues></_>
        <_>
          <internalNodes>
            0 -1 84 -892811530 -655325960 -480614023 1256244458
            -1425833485 -88850270 -1894771789 1473250369</internalNodes>
          <leafValues>
            -2.5756695866584778e-01 1.7004105448722839e-01</leafValues></_>
        <_>
          <internalNodes>
            0 -1 143 -749668641 102948252 -1229435387 -270558468
            1524391150 1509734397 -1128375793 1056824287</internalNodes>
          <leafValues>
            -1.8379461765289307e-01 2.4145592749118805e-01</leafValues></_>
        <_>
          <internalNodes>
            0 -1 265 391405845 -1089146477 -967555072 -1343370803
            1581533892 1597678588 -89990516 1152277702</internalNodes>
          <leafValues>
            -3.0828276276588440e-01 1.4567340910434723e-01</leafValues></_>
        <_>
          <internalNodes>
            0 -1 318 798401492 -1226120481 -1758236200 786431553
            1205268758 798743283 -132153524 248897124</internalNodes>
          <leafValues>
            -3.4925416111946106e-01 1.1561699956655502e-01</leafValues></_>
        <_>
          <internalNodes>
            0 -1 254 1443679393 1045796696 -124529127 -1347423434
            1848399928 1062857571 -330515704 1056262742</internalNodes>
          <leafValues>
            -2.3484303057193756e-01 1.8880346417427063e-01</leafValues></_>
        <_>
          <internalNodes>
            0 -1 337 -33720299 1499445973 1557903776 -643983634
            -880977404 1157467643 -822192566 1686041559</internalNodes>
          <leafValues>
            -2.7296686172485352e-01 1.5941168367862701e-01</leafValues></_>
        <_>
          <internalNodes>
            0 -1 276 -874774683 -1485023524 217394740 1071064784
            710257080 -1145426056 588749612 787326719</internalNodes>
          <leafValues>
            -1.9596657156944275e-01 2.2439372539520264e-01</leafValues></_>
        <_>
          <internalNodes>
            0 -1 262 335841303 1017672140 680192656 -1357060480
            -868204404 1073670329 -387818676 653686628</internalNodes>
          <leafValues>
            -3.6387082934379578e-01 1.2301249057054520e-01</leafValues></_>
        <_>
          <internalNodes>
            0 -1 1 249996926 2035702107 -168732772 -1360799249 474827255
            -149449797 -497609091 1529936983</internalNodes>
          <leafValues>
            -3.5435670614242554e-01 1.2668032944202423e-01</leafValues></_>
        <_>
          <internalNodes>
            0 -1 405 -217917054 -687843428 1086928168 1373702514
            381715179 -1988091768 -1488744289 -678459653</internalNodes>
          <leafValues>
            -1.3701604306697845e-01 3.3211898803710938e-01</leafValues></_>
        <_>
          <internalNodes>
            0 -1 270 1993108991 78370297 1220761600 -296558380
            2108584552 983417572 1251901216 251460468</internalNodes>
          <leafValues>
            -4.3015480041503906e-01 1.0256731510162354e-01</leafValues></_>
        <_>
          <internalNodes>
            0 -1 17 -103235368 -711304960 1889620210 2036187136
            -540823335 -2130042728 361160922 -1717921847</internalNodes>
          <leafValues>
            -1.6602949798107147e-01 2.7324286103248596e-01</leafValues></_>
        <_>
          <internalNodes>
            0 -1 230 884063042 -277837220 -410992068 -303814440
            1216318080 -704735844 661029335 262012651</internalNodes>
          <leafValues>
            -2.5979313254356384e-01 1.7627222836017609e-01</leafValues></_>
        <_>
          <internalNodes>
            0 -1 248 948270589 -1093099291 -791358497 -1965422696
            -101549768 -7583060 27287304 -1430639468</internalNodes>
          <leafValues>
            -3.2298144698143005e-01 1.4929670095443726e-01</leafValues></_>
        <_>
          <internalNodes>
            0 -1 367 -595507988 -639356800 281022576 1461134033
            -1165981046 384 -1338914158 428559378</internalNodes>
          <leafValues>
            -2.3205038905143738e-01 1.9636823236942291e-01</leafValues></_>
        <_>
          <internalNodes>
            0 -1 225 -786835695 1062926879 2067413790 -1654042307
            1940435477 -1214182594 -250505697 907672943</internalNodes>
          <leafValues>
            -3.2633200287818909e-01 1.3894937932491302e-01</leafValues></_>
        <_>
          <internalNodes>
            0 -1 269 -671765217 -1673629552 -1861709632 -1343758608
            2048115184 1534364818 -306324914 173504695</internalNodes>
          <leafValues>
            -2.2574006021022797e-01 1.9994018971920013e-01</leafValues></_>
        <_>
          <internalNodes>
            0 -1 231 64115443 -1978093133 -161692939 1315215840
            1975737087 -83890808 -71083428 -1996964139</internalNodes>
          <leafValues>
            -2.7050140500068665e-01 1.6889482736587524e-01</leafValues></_>
        <_>
          <internalNodes>
            0 -1 197 -571095115 1950347252 -1791758817 -542249345
            -1644180549 2076041021 -989921457 1070593854</internalNodes>
          <leafValues>
            -1.3693149387836456e-01 3.5677695274353027e-01</leafValues></_>
        <_>
          <internalNodes>
            0 -1 322 -671124481 -1227321181 121688771 18748561
            -1769328186 -1077278546 327871025 -688358411</internalNodes>
          <leafValues>
            -2.3359470069408417e-01 1.9914336502552032e-01</leafValues></_>
        <_>
          <internalNodes>
            0 -1 172 1155727089 453943884 -391344535 -1107311101
            -597816148 1266417535 -197169317 1972369566</internalNodes>
          <leafValues>
            -1.8509835004806519e-01 2.6429089903831482e-01</leafValues></_>
        <_>
          <internalNodes>
            0 -1 413 -733461184 -206044048 -1811774769 1426392384
            -1702836278 1461977933 1398663819 -1747983205</internalNodes>
          <leafValues>
            -1.5513192117214203e-01 2.8653723001480103e-01</leafValues></_>
        <_>
          <internalNodes>
            0 -1 257 2014402743 344378353 1545002896 799453615
            1319184511 2108418766 438999616 -573182058</internalNodes>
          <leafValues>
            -2.1934844553470612e-01 1.9766643643379211e-01</leafValues></_>
        <_>
          <internalNodes>
            0 -1 345 462615255 931152044 295817460 -1489582852
            -1436017012 -477507431 -1371260055 -2030123792</internalNodes>
          <leafValues>
            -2.8645822405815125e-01 1.5959636867046356e-01</leafValues></_>
        <_>
          <internalNodes>
            0 -1 102 -1317984330 105822708 923141682 2142449210
            -390320708 1150309556 645534522 1308374010</internalNodes>
          <leafValues>
            -3.2063183188438416e-01 1.4064285159111023e-01</leafValues></_>
        <_>
          <internalNodes>
            0 -1 43 1079713823 -133502633 1855908566 -578924938
            1494614070 606460208 -1887186610 1683345273</internalNodes>
          <leafValues>
            -2.5667744874954224e-01 1.7144680023193359e-01</leafValues></_>
        <_>
          <internalNodes>
            0 -1 85 763748656 322992446 -228815922 -1331909221 -75106607
            -68927359 -1514423319 1232140587</internalNodes>
          <leafValues>
            -2.9524800181388855e-01 1.6382613778114319e-01</leafValues></_>
        <_>
          <internalNodes>
            0 -1 83 -97824742 2069717638 5849112 -547992357 -92232993
            -1799875776 -244065142 -620263423</internalNodes>
          <leafValues>
            -1.6708973050117493e-01 2.9165053367614746e-01</leafValues></_>
        <_>
          <internalNodes>
            0 -1 75 785280665 787391932 -1435841365 1306576602
            -1024723303 -871071436 -1643384116 1198219196</internalNodes>
          <leafValues>
            -2.6605105400085449e-01 1.8607406318187714e-01</leafValues></_>
        <_>
          <internalNodes>
            0 -1 412 -212274517 -558826834 -1484803919 1973486364
            -739772761 -1904376704 -1049628495 -843058225</internalNodes>
          <leafValues>
            -1.6827288269996643e-01 2.8802365064620972e-01</leafValues></_>
        <_>
          <internalNodes>
            0 -1 293 -749603381 -1391397968 -792595353 712504376
            -94758571 -1882584824 448150309 2127752116</internalNodes>
          <leafValues>
            -2.7694451808929443e-01 1.6166633367538452e-01</leafValues></_>
        <_>
          <internalNodes>
            0 -1 163 -1786210621 -87359547 220450048 1593671263
            -1661330271 -1764954148 1061912555 1068453491</internalNodes>
          <leafValues>
            -1.8897515535354614e-01 2.4405851960182190e-01</leafValues></_>
        <_>
          <internalNodes>
            0 -1 178 -629873771 -1440733064 1250594400 -1481892891
            824075160 1800747700 -498557990 102200939</internalNodes>
          <leafValues>
            -2.4912361800670624e-01 1.8439193069934845e-01</leafValues></_>
        <_>
          <internalNodes>
            0 -1 415 -83176758 -674558582 340003097 1599578155
            -1061631810 27550217 -1601135430 -884244213</internalNodes>
          <leafValues>
            -1.4043059945106506e-01 3.2634791731834412e-01</leafValues></_>
        <_>
          <internalNodes>
            0 -1 299 903519163 794177844 -250555664 251167180 846989480
            -1434433013 2030309956 -1426454668</internalNodes>
          <leafValues>
            -3.4418320655822754e-01 1.3004103302955627e-01</leafValues></_>
        <_>
          <internalNodes>
            0 -1 90 797831552 -859518718 -1593749199 2146884354
            -1582585666 218347272 1421832355 -853310190</internalNodes>
          <leafValues>
            -2.5115326046943665e-01 1.8764671683311462e-01</leafValues></_>
        <_>
          <internalNodes>
            0 -1 354 1431526591 252740023 -930297611 -1968389170
            -388425077 -641637726 -564733376 1559555957</internalNodes>
          <leafValues>
            -2.5231698155403137e-01 1.8082034587860107e-01</leafValues></_>
        <_>
          <internalNodes>
            0 -1 24 -608960814 -10932587 -662227243 -716466047
            -1994479382 -1342123455 -1155794262 -619974197</internalNodes>
          <leafValues>
            -1.1592169851064682e-01 4.0145534276962280e-01</leafValues></_>
        <_>
          <internalNodes>
            0 -1 335 -674390511 -1759554543 -1610519776 -1898440327
            1585995600 1873461483 -662398336 -193713320</internalNodes>
          <leafValues>
            -3.5007297992706299e-01 1.3780185580253601e-01</leafValues></_>
        <_>
          <internalNodes>
            0 -1 246 1078828753 -1758928644 970603176 765395397
            1442951600 721232060 956444522 105985967</internalNodes>
          <leafValues>
            -2.4629063904285431e-01 1.9323348999023438e-01</leafValues></_>
        <_>
          <internalNodes>
            0 -1 106 33625122 1057465754 -11575812 1067789167 -405505340
            1457227931 -707410469 1297481360</internalNodes>
          <leafValues>
            -3.2349658012390137e-01 1.4080309867858887e-01</leafValues></_>
        <_>
          <internalNodes>
            0 -1 416 -914645414 1365910019 -2100507640 -120869298
            -229711185 -905823488 -1847342118 -1021079536</internalNodes>
          <leafValues>
            -1.7857925593852997e-01 2.5786295533180237e-01</leafValues></_>
        <_>
          <internalNodes>
            0 -1 366 -1728181487 -435012049 2105892051 1360952699
            382035636 -1129893129 -1439735583 1681061707</internalNodes>
          <leafValues>
            -3.0870980024337769e-01 1.5267072618007660e-01</leafValues></_>
        <_>
          <internalNodes>
            0 -1 251 -990324656 -1468286309 -1783999671 -1205691505
            2086255508 -1149426370 -773910477 184612137</internalNodes>
          <leafValues>
            -2.3970973491668701e-01 1.9370110332965851e-01</leafValues></_>
        <_>
          <internalNodes>
            0 -1 191 1409679488 867806893 -1822406766 -1919349486
            -1515034649 -912616675 1061624543 251858697</internalNodes>
          <leafValues>
            -3.3587664365768433e-01 1.3042362034320831e-01</leafValues></_>
        <_>
          <internalNodes>
            0 -1 176 381504217 1039176109 1287782978 411720 1267335736
            1938294825 -508028864 913603380</internalNodes>
          <leafValues>
            -4.6388053894042969e-01 9.9485136568546295e-02</leafValues></_>
        <_>
          <internalNodes>
            0 -1 32 1076916616 -1421945762 1108801426 1885217014
            1265732052 1048764917 2053583483 1609355379</internalNodes>
          <leafValues>
            -3.0315330624580383e-01 1.5045419335365295e-01</leafValues></_>
        <_>
          <internalNodes>
            0 -1 317 -1885226237 2142961088 -1074867056 -1615003692
            -10191028 2111696885 -1345405702 1054338783</internalNodes>
          <leafValues>
            -1.9477917253971100e-01 2.4219083786010742e-01</leafValues></_>
        <_>
          <internalNodes>
            0 -1 181 438268157 441774484 1789964542 -1297026900
            -666675160 -1114076357 -1627219268 -98926752</internalNodes>
          <leafValues>
            -3.2374608516693115e-01 1.5221612155437469e-01</leafValues></_>
        <_>
          <internalNodes>
            0 -1 145 -1717141761 -1983840267 1894301729 -281810312
            -603365698 -319651884 276023211 452853181</internalNodes>
          <leafValues>
            -1.9815604388713837e-01 2.4673928320407867e-01</leafValues></_>
        <_>
          <internalNodes>
            0 -1 422 -708062322 -242491060 -1863548718 -686749659
            -1311519259 -387046839 -1899783937 -1678908790</internalNodes>
          <leafValues>
            -1.2622417509555817e-01 3.6730578541755676e-01</leafValues></_>
        <_>
          <internalNodes>
            0 -1 273 1394865151 -1089027928 -502279983 -120068900
            -893226596 2061488347 -335790508 -16842764</internalNodes>
          <leafValues>
            -2.3753225803375244e-01 1.9177757203578949e-01</leafValues></_>
        <_>
          <internalNodes>
            0 -1 122 -593331956 -253982494 460461541 -271609470
            606577256 109928928 -1371989366 1832902603</internalNodes>
          <leafValues>
            -2.1847520768642426e-01 2.1670788526535034e-01</leafValues></_>
        <_>
          <internalNodes>
            0 -1 306 1241399301 -128270485 961926585 -1648838856
            -1001565734 -1999104741 -302109361 839442017</internalNodes>
          <leafValues>
            -2.9680201411247253e-01 1.6026245057582855e-01</leafValues></_>
        <_>
          <internalNodes>
            0 -1 110 268290 943329919 -1327643894 1410651099 810948772
            -60374203 -799732832 1886435258</internalNodes>
          <leafValues>
            -3.8299509882926941e-01 1.1895167827606201e-01</leafValues></_>
        <_>
          <internalNodes>
            0 -1 137 -124977775 -172076142 -1390999449 1975478948
            2107670445 -1147535784 -818118684 1166497278</internalNodes>
          <leafValues>
            -1.9373911619186401e-01 2.5306069850921631e-01</leafValues></_>
        <_>
          <internalNodes>
            0 -1 107 -225841118 -93026048 -432707892 1597201603
            -318602509 -1844968148 -797049926 -1154756551</internalNodes>
          <leafValues>
            -1.4625571668148041e-01 3.0428415536880493e-01</leafValues></_>
        <_>
          <internalNodes>
            0 -1 18 544162310 1050293398 -366821084 -1361088358
            548619231 -1234034414 -1002255601 1549108304</internalNodes>
          <leafValues>
            -3.1535291671752930e-01 1.4543503522872925e-01</leafValues></_>
        <_>
          <internalNodes>
            0 -1 355 1602170257 -583157775 -33690224 -1255703003
            1574931338 1909768187 -323748118 854062967</internalNodes>
          <leafValues>
            -1.8446974456310272e-01 2.5109171867370605e-01</leafValues></_>
        <_>
          <internalNodes>
            0 -1 234 -196026721 723403004 -1290616161 843346388
            2024150773 328999086 1108294469 -1627591436</internalNodes>
          <leafValues>
            -2.8618010878562927e-01 1.6414439678192139e-01</leafValues></_>
        <_>
          <internalNodes>
            0 -1 282 6038921 754686600 -1508519552 -1357023628
            2046099601 2069922746 -1365512690 787970934</internalNodes>
          <leafValues>
            -2.8088545799255371e-01 1.7489613592624664e-01</leafValues></_>
        <_>
          <internalNodes>
            0 -1 131 1322787392 -1399080197 1855488592 404683674
            334373580 -120407115 554339572 -1055048878</internalNodes>
          <leafValues>
            -4.3422678112983704e-01 1.0956236720085144e-01</leafValues></_>
        <_>
          <internalNodes>
            0 -1 127 -68688009 1987714943 1878555123 703022118
            -1059185480 1726748340 -630738210 -152336989</internalNodes>
          <leafValues>
            -1.5670387446880341e-01 3.0662307143211365e-01</leafValues></_>
        <_>
          <internalNodes>
            0 -1 48 -358764063 -426372302 1527706800 -1364548211
            -281291787 -542402629 -996168173 1494515673</internalNodes>
          <leafValues>
            -2.2908213734626770e-01 2.0224463939666748e-01</leafValues></_>
        <_>
          <internalNodes>
            0 -1 341 -1102849791 387076856 82401313 -2071486837
            567783444 624274070 -189235630 1276116531</internalNodes>
          <leafValues>
            -2.7456960082054138e-01 1.6709516942501068e-01</leafValues></_>
        <_>
          <internalNodes>
            0 -1 392 -390552071 -1191066872 1360499004 -1006366244
            860537155 -1435570035 160809085 -1041238788</internalNodes>
          <leafValues>
            -2.3374618589878082e-01 1.9991828501224518e-01</leafValues></_>
        <_>
          <internalNodes>
            0 -1 426 -747908986 -790650548 1175329994 -787236286
            -779689976 152183316 1087504586 1528008863</internalNodes>
          <leafValues>
            -1.8432368338108063e-01 2.5541177392005920e-01</leafValues></_>
        <_>
          <internalNodes>
            0 -1 117 751630421 -811176356 -307993599 -1782436167
            -1353790154 1577048045 1845493384 1336298250</internalNodes>
          <leafValues>
            -2.1648581326007843e-01 2.1775297820568085e-01</leafValues></_>
        <_>
          <internalNodes>
            0 -1 150 1472814033 1241261229 1375886750 2058517852
            -890617704 -19179432 445805642 1513274932</internalNodes>
          <leafValues>
            -3.3797898888587952e-01 1.3920824229717255e-01</leafValues></_>
        <_>
          <internalNodes>
            0 -1 0 428069850 -74332652 317575624 -217070599 -341116758
            42255504 -501183237 -34876481</internalNodes>
          <leafValues>
            -1.2919162213802338e-01 3.6556422710418701e-01</leafValues></_>
        <_>
          <internalNodes>
            0 -1 263 38922883 916257022 -1923727100 -1647409228
            986978500 870209012 1713815976 494874487</internalNodes>
          <leafValues>
            -2.3988673090934753e-01 2.0277985930442810e-01</leafValues></_>
        <_>
          <internalNodes>
            0 -1 166 143303411 715051952 302654492 1584437380 1938559159
            -1141751406 1560820848 1680142582</internalNodes>
          <leafValues>
            -3.7468960881233215e-01 1.3352067768573761e-01</leafValues></_>
        <_>
          <internalNodes>
            0 -1 86 1703223712 -859542646 -451632105 -499068223
            109121669 -1934601935 1137774928 1078284880</internalNodes>
          <leafValues>
            -4.2091542482376099e-01 1.0985951125621796e-01</leafValues></_>
        <_>
          <internalNodes>
            0 -1 78 1937995420 -866472122 -1943009738 -306846830
            -1706366665 1563793968 -1085018560 450744038</internalNodes>
          <leafValues>
            -2.4394485354423523e-01 1.9939623773097992e-01</leafValues></_>
        <_>
          <internalNodes>
            0 -1 389 2011917619 860737920 88400324 -1488497522 -40954041
            1085217527 -544695408 -256574993</internalNodes>
          <leafValues>
            -2.4902339279651642e-01 1.9869656860828400e-01</leafValues></_>
        <_>
          <internalNodes>
            0 -1 425 1909822174 -754437646 303239389 2044699163
            -362104661 -1943344998 -1182034738 -605315681</internalNodes>
          <leafValues>
            -1.2136373668909073e-01 4.1192612051963806e-01</leafValues></_>
        <_>
          <internalNodes>
            0 -1 198 112219523 -1512148044 1553890962 1189769636
            1868058855 -1893201371 1930049640 1347963440</internalNodes>
          <leafValues>
            -3.8230913877487183e-01 1.2828671932220459e-01</leafValues></_>
        <_>
          <internalNodes>
            0 -1 305 -86703024 -26866680 -1424191232 -1645636020
            -1935110700 -1388277517 -1689667345 -1357897447</internalNodes>
          <leafValues>
            -2.5094670057296753e-01 1.8830814957618713e-01</leafValues></_>
        <_>
          <internalNodes>
            0 -1 414 -649600278 -173323502 37094476 -569175622
            -1506200656 1881181482 1175433643 1376294299</internalNodes>
          <leafValues>
            -2.0437631011009216e-01 2.3733706772327423e-01</leafValues></_>
        <_>
          <internalNodes>
            0 -1 386 -1829943072 -1054201700 1828832498 1909548657
            -1341725468 -2075983719 -216086035 -1979478082</internalNodes>
          <leafValues>
            -1.9037398695945740e-01 2.5558659434318542e-01</leafValues></_>
        <_>
          <internalNodes>
            0 -1 130 146216194 690666979 -259684302 -2140730943
            1765286741 -116489762 1601855551 285318998</internalNodes>
          <leafValues>
            -4.5276403427124023e-01 1.0203407704830170e-01</leafValues></_>
        <_>
          <internalNodes>
            0 -1 199 -774191987 947966930 -1901589808 -40096160
            1585203330 199010448 -829564086 2112835431</internalNodes>
          <leafValues>
            -2.2100318968296051e-01 2.1837197244167328e-01</leafValues></_>
        <_>
          <internalNodes>
            0 -1 142 1103130203 -1747258371 1208255753 1542840048
            949492989 2076369293 -368176897 854555220</internalNodes>
          <leafValues>
            -2.2669328749179840e-01 2.1523076295852661e-01</leafValues></_>
        <_>
          <internalNodes>
            0 -1 22 -683167510 1880550041 -451833479 -267974333
            -625241398 1091533648 1999173750 -251280440</internalNodes>
          <leafValues>
            -1.8127599358558655e-01 2.6342532038688660e-01</leafValues></_>
        <_>
          <internalNodes>
            0 -1 132 -298583209 -81682016 -1745520323 -715751055
            -888829453 -1077700891 1774675190 -1645767543</internalNodes>
          <leafValues>
            -1.4300100505352020e-01 3.2596653699874878e-01</leafValues></_>
        <_>
          <internalNodes>
            0 -1 309 272068885 2017319411 47721329 1158799560 1349212928
            1411484234 -1172620378 301202408</internalNodes>
          <leafValues>
            -3.6772942543029785e-01 1.2967823445796967e-01</leafValues></_>
        <_>
          <internalNodes>
            0 -1 56 1996655379 1381677146 1630681308 2109594828
            -1039726281 -688639685 -801875126 1079082308</internalNodes>
          <leafValues>
            -2.6317971944808960e-01 1.8784202635288239e-01</leafValues></_>
        <_>
          <internalNodes>
            0 -1 275 -1220693233 -1355747075 1481776272 227366996
            532932676 796651768 -54613430 1207294227</internalNodes>
          <leafValues>
            -2.2932323813438416e-01 2.1666228771209717e-01</leafValues></_></weakClassifiers></_>
    <!-- stage 5 -->
    <_>
      <maxWeakCount>99</maxWeakCount>
      <stageThreshold>1.4558051526546478e-01</stageThreshold>
      <weakClassifiers>
        <_>
          <internalNodes>
            0 -1 49 1974831274 -39236897 1351651839 -1074020135
            -1460624909 -128200215 -2086545153 -1722434053</internalNodes>
          <leafValues>
            -3.3294168114662170e-01 2.6914373040199280e-01</leafValues></_>
        <_>
          <internalNodes>
            0 -1 352 -1281913962 -222129389 -264134000 -349765625
            631869436 -678180337 2113627836 200011231</internalNodes>
          <leafValues>
            -2.7975022792816162e-01 1.9940225780010223e-01</leafValues></_>
        <_>
          <internalNodes>
            0 -1 92 -813700609 -2142614035 -968650418 -55780790
            1109568163 -996077213 -682847725 -135208141</internalNodes>
          <leafValues>
            -2.6420336961746216e-01 2.1178376674652100e-01</leafValues></_>
        <_>
          <internalNodes>
            0 -1 184 1325006132 319478288 -1337339020 894165567
            -990344008 593068240 134748632 267379407</internalNodes>
          <leafValues>
            -2.7139729261398315e-01 2.2436553239822388e-01</leafValues></_>
        <_>
          <internalNodes>
            0 -1 159 344082530 -739730468 395643515 832155463 -73311286
            -1760988522 -619312631 218827951</internalNodes>
          <leafValues>
            -3.6178892850875854e-01 1.2512117624282837e-01</leafValues></_>
        <_>
          <internalNodes>
            0 -1 31 -1272793909 -19373693 -1810869506 -40969862
            -1084613556 1326665798 -1911909329 458484571</internalNodes>
          <leafValues>
            -2.4212883412837982e-01 2.1714541316032410e-01</leafValues></_>
        <_>
          <internalNodes>
            0 -1 393 394253277 -1174085344 -1807744143 -677265320
            1127994517 -1425853765 227668165 -909127476</internalNodes>
          <leafValues>
            -2.5800937414169312e-01 1.9671377539634705e-01</leafValues></_>
        <_>
          <internalNodes>
            0 -1 164 1896671427 -1615251709 -50850806 -39497805
            1239829745 -1108967689 -33657206 800026227</internalNodes>
          <leafValues>
            -1.6194054484367371e-01 3.0372977256774902e-01</leafValues></_>
        <_>
          <internalNodes>
            0 -1 212 -1059675911 1402779420 1426099520 -1885116316
            985284936 405833904 974121688 373228286</internalNodes>
          <leafValues>
            -3.1954887509346008e-01 1.3442651927471161e-01</leafValues></_>
        <_>
          <internalNodes>
            0 -1 253 1148048406 -1709667277 -455485377 234888207
            -783683363 -1265742711 -1056922964 1327219</internalNodes>
          <leafValues>
            -2.4480731785297394e-01 2.1927839517593384e-01</leafValues></_>
        <_>
          <internalNodes>
            0 -1 331 1456422655 -1073931297 -305360877 1310202588
            -67301143 -1182106453 -1641021597 -1099374763</internalNodes>
          <leafValues>
            -1.9774548709392548e-01 2.5389078259468079e-01</leafValues></_>
        <_>
          <internalNodes>
            0 -1 47 -747399432 -685538120 -2109449199 1403847813
            1825022600 -1023113344 -1151663874 -474242913</internalNodes>
          <leafValues>
            -1.6034880280494690e-01 3.3027669787406921e-01</leafValues></_>
        <_>
          <internalNodes>
            0 -1 327 -579472015 789483668 -821915198 -809058162
            857352469 672245941 805837344 1156874416</internalNodes>
          <leafValues>
            -4.6495732665061951e-01 1.0239665210247040e-01</leafValues></_>
        <_>
          <internalNodes>
            0 -1 53 306401876 159233326 542130628 -919056138 -922267556
            961151875 -1651531614 1570378729</internalNodes>
          <leafValues>
            -3.0891644954681396e-01 1.6658259928226471e-01</leafValues></_>
        <_>
          <internalNodes>
            0 -1 76 -1466538881 -1017073436 -671088639 29606540
            458387620 -1049395168 1040329636 268392094</internalNodes>
          <leafValues>
            -2.2293277084827423e-01 2.3097194731235504e-01</leafValues></_>
